digraph Tree {
node [shape=box, style="filled", color="black"] ;
0 [label="relationship_3 <= 0.5\ngini = 0.5\nsamples = 45962\nvalue = [22981, 22981]\nclass = 0", fillcolor="#ffffff"] ;
1 [label="educationalNum <= 11.5\ngini = 0.401\nsamples = 22316\nvalue = [16135, 6181]\nclass = 0", fillcolor="#efb185"] ;
0 -> 1 [labeldistance=2.5, labelangle=45, headlabel="True"] ;
2 [label="relationship_5 <= 0.5\ngini = 0.286\nsamples = 15239\nvalue = [12604, 2635]\nclass = 0", fillcolor="#ea9b62"] ;
1 -> 2 ;
3 [label="age <= 33.5\ngini = 0.226\nsamples = 13810\nvalue = [12019, 1791]\nclass = 0", fillcolor="#e99457"] ;
2 -> 3 ;
4 [label="hoursPerWeek <= 48.5\ngini = 0.091\nsamples = 7339\nvalue = [6988, 351]\nclass = 0", fillcolor="#e68743"] ;
3 -> 4 ;
5 [label="gini = 0.058\nsamples = 6542\nvalue = [6347, 195]\nclass = 0", fillcolor="#e6853f"] ;
4 -> 5 ;
6 [label="gini = 0.315\nsamples = 797\nvalue = [641, 156]\nclass = 0", fillcolor="#eba069"] ;
4 -> 6 ;
7 [label="relationship_2 <= 0.5\ngini = 0.346\nsamples = 6471\nvalue = [5031, 1440]\nclass = 0", fillcolor="#eca572"] ;
3 -> 7 ;
8 [label="gini = 0.407\nsamples = 4732\nvalue = [3389, 1343]\nclass = 0", fillcolor="#efb387"] ;
7 -> 8 ;
9 [label="gini = 0.105\nsamples = 1739\nvalue = [1642, 97]\nclass = 0", fillcolor="#e78845"] ;
7 -> 9 ;
10 [label="occupation_6 <= 0.5\ngini = 0.484\nsamples = 1429\nvalue = [585, 844]\nclass = 1", fillcolor="#c2e1f7"] ;
2 -> 10 ;
11 [label="educationalNum <= 7.5\ngini = 0.462\nsamples = 1273\nvalue = [462, 811]\nclass = 1", fillcolor="#aad5f4"] ;
10 -> 11 ;
12 [label="gini = 0.2\nsamples = 62\nvalue = [55, 7]\nclass = 0", fillcolor="#e89152"] ;
11 -> 12 ;
13 [label="gini = 0.446\nsamples = 1211\nvalue = [407, 804]\nclass = 1", fillcolor="#9dcff2"] ;
11 -> 13 ;
14 [label="educationalNum <= 8.5\ngini = 0.334\nsamples = 156\nvalue = [123, 33]\nclass = 0", fillcolor="#eca36e"] ;
10 -> 14 ;
15 [label="gini = 0.102\nsamples = 37\nvalue = [35, 2]\nclass = 0", fillcolor="#e68844"] ;
14 -> 15 ;
16 [label="gini = 0.385\nsamples = 119\nvalue = [88, 31]\nclass = 0", fillcolor="#eead7f"] ;
14 -> 16 ;
17 [label="age <= 27.5\ngini = 0.5\nsamples = 7077\nvalue = [3531, 3546]\nclass = 1", fillcolor="#feffff"] ;
1 -> 17 ;
18 [label="relationship_5 <= 0.5\ngini = 0.215\nsamples = 1320\nvalue = [1158, 162]\nclass = 0", fillcolor="#e99355"] ;
17 -> 18 ;
19 [label="hoursPerWeek <= 62.0\ngini = 0.158\nsamples = 1235\nvalue = [1128, 107]\nclass = 0", fillcolor="#e78d4c"] ;
18 -> 19 ;
20 [label="gini = 0.138\nsamples = 1206\nvalue = [1116, 90]\nclass = 0", fillcolor="#e78b49"] ;
19 -> 20 ;
21 [label="gini = 0.485\nsamples = 29\nvalue = [12, 17]\nclass = 1", fillcolor="#c5e2f7"] ;
19 -> 21 ;
22 [label="age <= 24.5\ngini = 0.457\nsamples = 85\nvalue = [30, 55]\nclass = 1", fillcolor="#a5d2f3"] ;
18 -> 22 ;
23 [label="gini = 0.455\nsamples = 20\nvalue = [13, 7]\nclass = 0", fillcolor="#f3c5a4"] ;
22 -> 23 ;
24 [label="gini = 0.386\nsamples = 65\nvalue = [17, 48]\nclass = 1", fillcolor="#7fc0ee"] ;
22 -> 24 ;
25 [label="relationship_1 <= 0.5\ngini = 0.485\nsamples = 5757\nvalue = [2373, 3384]\nclass = 1", fillcolor="#c4e2f7"] ;
17 -> 25 ;
26 [label="relationship_2 <= 0.5\ngini = 0.405\nsamples = 3247\nvalue = [915, 2332]\nclass = 1", fillcolor="#87c3ef"] ;
25 -> 26 ;
27 [label="gini = 0.274\nsamples = 2561\nvalue = [420, 2141]\nclass = 1", fillcolor="#60b0ea"] ;
26 -> 27 ;
28 [label="gini = 0.402\nsamples = 686\nvalue = [495, 191]\nclass = 0", fillcolor="#efb285"] ;
26 -> 28 ;
29 [label="hoursPerWeek <= 43.5\ngini = 0.487\nsamples = 2510\nvalue = [1458, 1052]\nclass = 0", fillcolor="#f8dcc8"] ;
25 -> 29 ;
30 [label="gini = 0.41\nsamples = 1378\nvalue = [981, 397]\nclass = 0", fillcolor="#f0b489"] ;
29 -> 30 ;
31 [label="gini = 0.488\nsamples = 1132\nvalue = [477, 655]\nclass = 1", fillcolor="#c9e4f8"] ;
29 -> 31 ;
32 [label="educationalNum <= 11.5\ngini = 0.411\nsamples = 23646\nvalue = [6846, 16800]\nclass = 1", fillcolor="#8ac5f0"] ;
0 -> 32 [labeldistance=2.5, labelangle=-45, headlabel="False"] ;
33 [label="educationalNum <= 7.5\ngini = 0.482\nsamples = 14004\nvalue = [5657, 8347]\nclass = 1", fillcolor="#bfdff7"] ;
32 -> 33 ;
34 [label="age <= 35.5\ngini = 0.411\nsamples = 1531\nvalue = [1088, 443]\nclass = 0", fillcolor="#f0b48a"] ;
33 -> 34 ;
35 [label="educationalNum <= 6.5\ngini = 0.233\nsamples = 387\nvalue = [335, 52]\nclass = 0", fillcolor="#e99558"] ;
34 -> 35 ;
36 [label="gini = 0.129\nsamples = 245\nvalue = [228, 17]\nclass = 0", fillcolor="#e78a48"] ;
35 -> 36 ;
37 [label="gini = 0.371\nsamples = 142\nvalue = [107, 35]\nclass = 0", fillcolor="#eeaa7a"] ;
35 -> 37 ;
38 [label="educationalNum <= 4.5\ngini = 0.45\nsamples = 1144\nvalue = [753, 391]\nclass = 0", fillcolor="#f3c2a0"] ;
34 -> 38 ;
39 [label="gini = 0.349\nsamples = 408\nvalue = [316, 92]\nclass = 0", fillcolor="#eda673"] ;
38 -> 39 ;
40 [label="gini = 0.482\nsamples = 736\nvalue = [437, 299]\nclass = 0", fillcolor="#f7d7c0"] ;
38 -> 40 ;
41 [label="age <= 30.5\ngini = 0.464\nsamples = 12473\nvalue = [4569, 7904]\nclass = 1", fillcolor="#abd6f4"] ;
33 -> 41 ;
42 [label="age <= 26.5\ngini = 0.473\nsamples = 1527\nvalue = [940, 587]\nclass = 0", fillcolor="#f5d0b5"] ;
41 -> 42 ;
43 [label="gini = 0.357\nsamples = 563\nvalue = [432, 131]\nclass = 0", fillcolor="#eda775"] ;
42 -> 43 ;
44 [label="gini = 0.499\nsamples = 964\nvalue = [508, 456]\nclass = 0", fillcolor="#fcf2eb"] ;
42 -> 44 ;
45 [label="hoursPerWeek <= 37.5\ngini = 0.443\nsamples = 10946\nvalue = [3629, 7317]\nclass = 1", fillcolor="#9bcef2"] ;
41 -> 45 ;
46 [label="gini = 0.444\nsamples = 621\nvalue = [414, 207]\nclass = 0", fillcolor="#f2c09c"] ;
45 -> 46 ;
47 [label="gini = 0.429\nsamples = 10325\nvalue = [3215, 7110]\nclass = 1", fillcolor="#93c9f1"] ;
45 -> 47 ;
48 [label="hoursPerWeek <= 30.5\ngini = 0.216\nsamples = 9642\nvalue = [1189, 8453]\nclass = 1", fillcolor="#55abe9"] ;
32 -> 48 ;
49 [label="age <= 30.5\ngini = 0.498\nsamples = 298\nvalue = [140, 158]\nclass = 1", fillcolor="#e8f4fc"] ;
48 -> 49 ;
50 [label="educationalNum <= 14.5\ngini = 0.142\nsamples = 26\nvalue = [24, 2]\nclass = 0", fillcolor="#e78c49"] ;
49 -> 50 ;
51 [label="gini = 0.077\nsamples = 25\nvalue = [24, 1]\nclass = 0", fillcolor="#e68641"] ;
50 -> 51 ;
52 [label="gini = 0.0\nsamples = 1\nvalue = [0, 1]\nclass = 1", fillcolor="#399de5"] ;
50 -> 52 ;
53 [label="hoursPerWeek <= 29.5\ngini = 0.489\nsamples = 272\nvalue = [116, 156]\nclass = 1", fillcolor="#cce6f8"] ;
49 -> 53 ;
54 [label="gini = 0.47\nsamples = 217\nvalue = [82, 135]\nclass = 1", fillcolor="#b1d9f5"] ;
53 -> 54 ;
55 [label="gini = 0.472\nsamples = 55\nvalue = [34, 21]\nclass = 0", fillcolor="#f5cfb3"] ;
53 -> 55 ;
56 [label="occupation_8 <= 0.5\ngini = 0.199\nsamples = 9344\nvalue = [1049, 8295]\nclass = 1", fillcolor="#52a9e8"] ;
48 -> 56 ;
57 [label="occupation_10 <= 0.5\ngini = 0.186\nsamples = 9050\nvalue = [940, 8110]\nclass = 1", fillcolor="#50a8e8"] ;
56 -> 57 ;
58 [label="gini = 0.181\nsamples = 8980\nvalue = [902, 8078]\nclass = 1", fillcolor="#4fa8e8"] ;
57 -> 58 ;
59 [label="gini = 0.496\nsamples = 70\nvalue = [38, 32]\nclass = 0", fillcolor="#fbebe0"] ;
57 -> 59 ;
60 [label="age <= 36.5\ngini = 0.467\nsamples = 294\nvalue = [109, 185]\nclass = 1", fillcolor="#aed7f4"] ;
56 -> 60 ;
61 [label="gini = 0.466\nsamples = 81\nvalue = [51, 30]\nclass = 0", fillcolor="#f4cbad"] ;
60 -> 61 ;
62 [label="gini = 0.396\nsamples = 213\nvalue = [58, 155]\nclass = 1", fillcolor="#83c2ef"] ;
60 -> 62 ;
}